protein_ID,0,1,2,3,4,5,6,7,8,9,10,11,12,13,14,15,16,17,18,19,20,21,22,23,24,25,26,27,28,29,30,31,32,33,34,35,36,37,38,39,40,41,42,43,44,45,46,47,48,49,50,51,52,53,54,55,56,57,58,59,60,61,62,63,64,65,66,67,68,69,70,71,72,73,74,75,76,77,78,79,80,81,82,83,84,85,86,87,88,89,90,91,92,93,94,95,96,97,98,99,100,101,102,103,104,105,106,107,108,109,110,111,112,113,114,115,116,117,118,119,120,121,122,123,124,125,126,127,128,129,130,131,132,133,134,135,136,137,138,139,140,141,142,143,144,145,146,147,148,149,150,151,152,153,154,155,156,157,158,159,160,161,162,163,164,165,166,167,168,169,170,171,172,173,174,175,176,177,178,179,180,181,182,183,184,185,186,187,188,189,190,191,192,193,194,195,196,197,198,199,200,201,202,203,204,205,206,207,208,209,210,211,212,213,214,215,216,217,218,219,220,221,222,223,224,225,226,227,228,229,230,231,232,233,234,235,236,237,238,239,240,241,242,243,244,245,246,247,248,249,250,251,252,253,254,255,256,257,258,259,260,261,262,263,264,265,266,267,268,269,270,271,272,273,274,275,276,277,278,279,280,281,282,283,284,285,286,287,288,289,290,291,292,293,294,295,296,297,298,299,300,301,302,303,304,305,306,307,308,309,310,311,312,313,314,315,316,317,318,319,320,321,322,323,324,325,326,327,328,329,330,331,332,333,334,335,336,337,338,339,340,341,342,343,344,345,346,347,348,349,350,351,352,353,354,355,356,357,358,359,360,361,362,363,364,365,366,367,368,369,370,371,372,373,374,375,376,377,378,379,380,381,382,383,384,385,386,387,388,389,390,391,392,393,394,395,396,397,398,399,400,401,402,403,404,405,406,407,408,409,410,411,412,413,414,415,416,417,418,419,420,421,422,423,424,425,426,427,428,429,430,431,432,433,434,435,436,437,438,439,440,441,442,443,444,445,446,447,448,449,450,451,452,453,454,455,456,457,458,459,460,461,462,463,464,465,466,467,468,469,470,471,472,473,474,475,476,477,478,479,480,481,482,483,484,485,486,487,488,489,490,491,492,493,494,495,496,497,498,499,500,501,502,503,504,505,506,507,508,509,510,511,512,513,514,515,516,517,518,519,520,521,522,523,524,525,526,527,528,529,530,531,532,533,534,535,536,537,538,539,540,541,542,543,544,545,546,547,548,549,550,551,552,553,554,555,556,557,558,559,560,561,562,563,564,565,566,567,568,569,570,571,572,573,574,575,576,577,578,579,580,581,582,583,584,585,586,587,588,589,590,591,592,593,594,595,596,597,598,599,600,601,602,603,604,605,606,607,608,609,610,611,612,613,614,615,616,617,618,619,620,621,622,623,624,625,626,627,628,629,630,631,632,633,634,635,636,637,638,639,640,641,642,643,644,645,646,647,648,649,650,651,652,653,654,655,656,657,658,659,660,661,662,663,664,665,666,667,668,669,670,671,672,673,674,675,676,677,678,679,680,681,682,683,684,685,686,687,688,689,690,691,692,693,694,695,696,697,698,699,700,701,702,703,704,705,706,707,708,709,710,711,712,713,714,715,716,717,718,719,720,721,722,723,724,725,726,727,728,729,730,731,732,733,734,735,736,737,738,739,740,741,742,743,744,745,746,747,748,749,750,751,752,753,754,755,756,757,758,759,760,761,762,763,764,765,766,767,768,769,770,771,772,773,774,775,776,777,778,779,780,781,782,783,784,785,786,787,788,789,790,791,792,793,794,795,796,797,798,799,800,801,802,803,804,805,806,807,808,809,810,811,812,813,814,815,816,817,818,819,820,821,822,823,824,825,826,827,828,829,830,831,832,833,834,835,836,837,838,839,840,841,842,843,844,845,846,847,848,849,850,851,852,853,854,855,856,857,858,859,860,861,862,863,864,865,866,867,868,869,870,871,872,873,874,875,876,877,878,879,880,881,882,883,884,885,886,887,888,889,890,891,892,893,894,895,896,897,898,899,900,901,902,903,904,905,906,907,908,909,910,911,912,913,914,915,916,917,918,919,920,921,922,923,924,925,926,927,928,929,930,931,932,933,934,935,936,937,938,939,940,941,942,943,944,945,946,947,948,949,950,951,952,953,954,955,956,957,958,959,960,961,962,963,964,965,966,967,968,969,970,971,972,973,974,975,976,977,978,979,980,981,982,983,984,985,986,987,988,989,990,991,992,993,994,995,996,997,998,999,1000,1001,1002,1003,1004,1005,1006,1007,1008,1009,1010,1011,1012,1013,1014,1015,1016,1017,1018,1019,1020,1021,1022,1023,1024,1025,1026,1027,1028,1029,1030,1031,1032,1033,1034,1035,1036,1037,1038,1039,1040,1041,1042,1043,1044,1045,1046,1047,1048,1049,1050,1051,1052,1053,1054,1055,1056,1057,1058,1059,1060,1061,1062,1063,1064,1065,1066,1067,1068,1069,1070,1071,1072,1073,1074,1075,1076,1077,1078,1079,1080,1081,1082,1083,1084,1085,1086,1087,1088,1089,1090,1091,1092,1093,1094,1095,1096,1097,1098,1099,1100,1101,1102,1103,1104,1105,1106,1107,1108,1109,1110,1111,1112,1113,1114,1115,1116,1117,1118,1119,1120,1121,1122,1123,1124,1125,1126,1127,1128,1129,1130,1131,1132,1133,1134,1135,1136,1137,1138,1139,1140,1141,1142,1143,1144,1145,1146,1147,1148,1149,1150,1151,1152,1153,1154,1155,1156,1157,1158,1159,1160,1161,1162,1163,1164,1165,1166,1167,1168,1169,1170,1171,1172,1173,1174,1175,1176,1177,1178,1179,1180,1181,1182,1183,1184,1185,1186,1187,1188,1189,1190,1191,1192,1193,1194,1195,1196,1197,1198,1199,1200,1201,1202,1203,1204,1205,1206,1207,1208,1209,1210,1211,1212,1213,1214,1215,1216,1217,1218,1219,1220,1221,1222,1223,1224,1225,1226,1227,1228,1229,1230,1231,1232,1233,1234,1235,1236,1237,1238,1239,1240,1241,1242,1243,1244,1245,1246,1247,1248,1249,1250,1251,1252,1253,1254,1255,1256,1257,1258,1259,1260,1261,1262,1263,1264,1265,1266,1267,1268,1269,1270,1271,1272,1273,1274,1275,1276,1277,1278,1279
R,-0.05994977056980133,-0.02129807323217392,0.011928689666092396,0.21255317330360413,0.0906129777431488,-0.20516487956047058,-0.19559349119663239,0.18854424357414246,-0.17864331603050232,0.12656299769878387,-0.02211930975317955,0.08988610655069351,-0.09383781999349594,-0.1299789845943451,-0.13141541182994843,0.059586215764284134,0.013611485250294209,0.2339307814836502,-0.16386908292770386,0.18627840280532837,0.11937133967876434,0.2660253047943115,0.19234757125377655,0.21245762705802917,0.07051046192646027,0.3732193112373352,-0.07262490689754486,-0.013406895101070404,0.3322319984436035,-0.24273449182510376,0.22642174363136292,-0.33814141154289246,0.07250980287790298,-0.25397223234176636,-0.07566937059164047,0.20864517986774445,-0.006018688436597586,-0.12532460689544678,-0.142498180270195,-0.23126260936260223,0.07923436909914017,-0.23132048547267914,-0.1268444061279297,-0.003337286179885268,0.0655566081404686,0.2543352246284485,-0.3348769545555115,-0.1629936397075653,-0.2624756991863251,-0.28388917446136475,-0.19110891222953796,0.26980674266815186,0.0029599920380860567,0.25584888458251953,-0.014519154094159603,-0.09136179089546204,0.28091269731521606,0.20197434723377228,-0.03950326144695282,0.16912443935871124,-0.16005894541740417,0.20569851994514465,-0.4086344540119171,-0.060955069959163666,-0.1366625279188156,0.23701739311218262,-0.029633615165948868,-0.09772098064422607,-0.12177902460098267,0.09026189148426056,0.1285761147737503,-0.335447758436203,-0.18579626083374023,-0.25084567070007324,-0.10108223557472229,0.09504338353872299,0.0037535172887146473,0.5098377466201782,0.01705962046980858,0.005327417515218258,-0.08709942549467087,-0.10789012163877487,0.23910097777843475,0.0050877719186246395,-0.18689584732055664,0.3519729673862457,-0.04656727612018585,0.6503841876983643,0.30030950903892517,-0.3217427134513855,0.04211273416876793,0.08915870636701584,-0.06953074038028717,0.1566319614648819,-0.17471309006214142,-0.046320486813783646,0.20780591666698456,-0.019024446606636047,0.04001253843307495,-0.2507410943508148,0.17416872084140778,-0.1992788016796112,-0.024844057857990265,0.008263171650469303,-0.0663873702287674,-0.48073330521583557,-0.3131878077983856,-0.38202694058418274,0.11331351101398468,0.3415220379829407,-0.1963217556476593,0.4191707968711853,0.1531449556350708,-0.016778890043497086,-0.22184494137763977,0.0613531731069088,-0.21427159011363983,0.19827067852020264,0.2861928343772888,-0.2531758248806,-0.20948410034179688,-0.1602150946855545,0.17618969082832336,0.3402930498123169,-0.2098476141691208,-0.02779448963701725,0.2133188396692276,-0.3075403571128845,0.28083810210227966,0.3454621434211731,-0.19974568486213684,0.19477227330207825,-0.17001669108867645,-0.08629569411277771,-0.08313991874456406,0.4975809156894684,-0.0385475680232048,-0.24835968017578125,0.2212262898683548,-0.02357766218483448,-0.01779576577246189,-0.2418285608291626,0.18327559530735016,0.46676573157310486,-0.03701942786574364,0.125445157289505,-0.3195618987083435,-0.08206991851329803,0.15579555928707123,0.086323082447052,-0.06825140118598938,-0.1970360428094864,0.10028111189603806,-0.20381371676921844,0.13733044266700745,-0.15458421409130096,-0.07789991050958633,0.01929725706577301,0.02317141555249691,-0.24361193180084229,-0.025736400857567787,0.486468642950058,-0.23276862502098083,-0.12258647382259369,0.11572468280792236,0.39281409978866577,-0.34170839190483093,-0.10388753563165665,-0.031367670744657516,0.2813890874385834,-0.036106694489717484,0.14759403467178345,-0.02882719226181507,-0.3041241466999054,-0.08828877657651901,0.08876267075538635,-0.1567928045988083,0.2764735817909241,-0.06134887412190437,0.5149303078651428,-0.24444915354251862,-0.17618361115455627,0.2871093451976776,-0.13949044048786163,-0.07012886554002762,-0.05473965406417847,0.1263313591480255,0.11482639610767365,0.15223658084869385,0.10274678468704224,0.013962950557470322,-0.13355828821659088,0.008674798533320427,0.4128528833389282,0.4917238652706146,0.02428213693201542,-0.0007068803533911705,0.4060932695865631,-0.11387882381677628,0.07728725671768188,0.38347911834716797,0.19344201683998108,0.2925545573234558,-0.2941369116306305,0.07610348612070084,-0.29873690009117126,0.00980655662715435,-0.22195906937122345,0.2040557861328125,-0.4313645660877228,-0.1528695970773697,0.09029019623994827,0.04817573353648186,-0.3729081451892853,-0.06872470676898956,-0.01693972386419773,-0.06082213670015335,0.17030979692935944,0.44667404890060425,-0.12405798584222794,0.10036472976207733,0.0278878565877676,-0.01177217997610569,-0.445556640625,-0.030987855046987534,-0.07438470423221588,0.1350332498550415,-0.2302452176809311,0.018012966960668564,0.009354938752949238,-0.05991170555353165,-0.09776448458433151,0.2502501606941223,0.2523456811904907,-3.1201367378234863,-0.05778953433036804,0.47407087683677673,0.1209711879491806,-0.11031758040189743,-0.09557166695594788,-0.0013981683878228068,-0.04000777378678322,-0.3871762454509735,0.07321809232234955,-0.008521837182343006,0.08986261487007141,0.11744221299886703,0.05897051468491554,0.09773357957601547,0.2107284963130951,-0.2187080830335617,-0.1898753046989441,0.28540435433387756,0.3295242488384247,-0.6224077343940735,-0.09756229817867279,0.26297441124916077,0.09061876684427261,0.006334499455988407,-0.2176332324743271,0.11578533798456192,-0.17427785694599152,0.002353717340156436,-0.16477221250534058,-0.0061576333828270435,-0.2112482637166977,-0.13147959113121033,-0.08023267984390259,0.08404530584812164,-0.08217717707157135,0.38019609451293945,-0.2208322286605835,-0.33826547861099243,0.09334364533424377,0.11265327036380768,-0.3358174264431,-0.16151559352874756,0.13009780645370483,0.21830618381500244,-0.24018985033035278,0.05779356136918068,0.35325321555137634,-0.03809984773397446,0.03405468910932541,-0.3955480754375458,0.16117645800113678,0.00737114017829299,0.1924550086259842,0.3428535759449005,-0.03843223676085472,0.1902109831571579,0.031975533813238144,0.052257973700761795,0.05151599645614624,-0.11096375435590744,0.26455482840538025,-0.2937428951263428,0.16429463028907776,0.49736812710762024,0.16284149885177612,0.14174096286296844,0.10579662770032883,-0.02446172386407852,-0.10529626905918121,-0.30393487215042114,-0.08456620573997498,0.5184203386306763,0.002399110933765769,-0.020282883197069168,0.11924710124731064,0.21269620954990387,-0.4244062304496765,0.003524474799633026,-0.1910828799009323,-0.33728793263435364,-0.2981458902359009,0.1845332533121109,-0.19966468214988708,-0.17464548349380493,0.17532214522361755,0.04281337186694145,0.13748793303966522,0.1440179944038391,0.30640360713005066,-0.28959396481513977,0.28419259190559387,-0.2532815635204315,0.22059518098831177,-0.11591214686632156,0.003838599193841219,-0.08565273135900497,0.06377223134040833,-0.11895450204610825,-0.08492729067802429,0.06161890923976898,-0.13782499730587006,-0.0914512500166893,0.21420277655124664,0.13481560349464417,-0.0765843465924263,0.0800037756562233,-0.06578098982572556,-0.29259544610977173,0.16190935671329498,-0.22500655055046082,0.08645237237215042,-0.021271036937832832,0.3015197217464447,0.1269916296005249,0.14348545670509338,0.11745277792215347,0.1059933453798294,-0.32067662477493286,0.17713475227355957,-0.2013547122478485,0.6516656875610352,-0.15230722725391388,-0.5757883191108704,-0.19124458730220795,-0.21437226235866547,0.10536891222000122,0.030827045440673828,-0.2086181789636612,-0.5197550654411316,0.14672307670116425,0.08071665465831757,0.03516359254717827,-0.14661335945129395,0.13455906510353088,-0.2535160481929779,0.4475393295288086,-0.13569000363349915,0.012677367776632309,0.073991559445858,0.19047148525714874,0.26486387848854065,-0.07302367687225342,-0.15932464599609375,0.37717723846435547,-0.04530009627342224,-0.13766922056674957,-0.10026472806930542,0.0407911017537117,-0.11180262267589569,0.3277176320552826,-0.26895734667778015,0.008691604249179363,-0.13133499026298523,0.059288449585437775,0.28888392448425293,-0.10798218101263046,-0.1838616281747818,-0.008073139935731888,-0.06525340676307678,-0.2909514307975769,0.25490689277648926,0.21977132558822632,0.03438645228743553,0.015660958364605904,0.016131334006786346,-0.20334768295288086,0.10564898699522018,0.05588631331920624,-0.17686843872070312,0.0491250678896904,-0.10416069626808167,0.15589049458503723,-0.1032065749168396,-0.029314016923308372,0.28070253133773804,0.34450796246528625,0.0011351201683282852,0.201108917593956,-0.10393084585666656,-0.02443438023328781,0.43622782826423645,0.06252730637788773,-0.1935328096151352,-0.14604823291301727,0.02312523126602173,-0.0610089935362339,-0.12266053259372711,0.24795851111412048,0.031227296218276024,-0.4035073518753052,0.5037478804588318,-0.08247894793748856,-0.004941076040267944,0.3550108075141907,0.11331930011510849,-0.15032915771007538,-0.15107406675815582,-0.3616364598274231,0.0890849158167839,0.24314214289188385,0.14017288386821747,0.1595020741224289,0.010348360985517502,0.029230281710624695,0.0841689333319664,0.02763357013463974,-0.0010102095548063517,-0.2926732003688812,0.040774405002593994,-0.23885288834571838,-0.24634972214698792,-0.04080842807888985,-0.054009366780519485,-0.07531122118234634,-0.35475215315818787,-0.19555261731147766,-0.10196836292743683,-0.22707641124725342,0.05042701214551926,-0.1752467155456543,0.14074711501598358,0.1679987609386444,-0.08415839076042175,-0.06488314270973206,0.2688288688659668,-0.04680370166897774,0.1409192830324173,-0.05469232797622681,-0.018161771818995476,0.14585283398628235,-0.008917709812521935,0.02697646990418434,0.12668322026729584,-0.38232654333114624,0.15724681317806244,0.3271932601928711,0.16319070756435394,0.1953473687171936,0.22828195989131927,0.08088579028844833,-0.1882181465625763,-0.08043258637189865,-0.08021187782287598,-0.3274706304073334,-0.2570227384567261,-0.10184422135353088,0.1280946433544159,0.056913502514362335,-0.15163695812225342,0.1813506931066513,0.1875668317079544,0.034205932170152664,0.029865387827157974,0.06928249448537827,-0.3940027058124542,0.20089082419872284,-0.0037585245445370674,0.13206128776073456,-0.09821010380983353,-0.07411739975214005,0.05538555979728699,0.12618285417556763,-0.34273701906204224,0.001494940253905952,0.10419704020023346,-0.10714229196310043,0.3711197078227997,-0.10476845502853394,-0.208182692527771,-0.09391320496797562,0.2078256905078888,-0.28717145323753357,0.44916480779647827,0.012929455377161503,0.2713213562965393,-0.09036824107170105,0.17378920316696167,-0.0188810545951128,0.15280821919441223,0.033629875630140305,-0.17757220566272736,0.03364481404423714,-0.4388442933559418,-0.01498566847294569,-0.351997435092926,-0.057574979960918427,-0.6822060346603394,-0.0841418132185936,0.4990553855895996,0.20541121065616608,-0.36110246181488037,0.12255321443080902,0.003546380903571844,0.037951257079839706,0.021951034665107727,0.09874149411916733,-0.3312276005744934,-0.4447040259838104,0.1554580181837082,0.16598032414913177,0.23134414851665497,-0.16358470916748047,0.20211900770664215,-0.365715354681015,-0.09746843576431274,-0.022259961813688278,-0.29956790804862976,-0.05191884562373161,0.17352163791656494,-0.0745161920785904,0.10447093099355698,0.2667701244354248,0.194908007979393,0.16680186986923218,0.04230036213994026,0.010776530019938946,0.2533358335494995,-0.18762975931167603,0.4415637254714966,-0.33611851930618286,-0.2873302102088928,-0.02977115660905838,-0.01597677357494831,0.23323798179626465,-0.018591871485114098,-0.13180598616600037,0.19348977506160736,0.41411155462265015,0.17611783742904663,0.09005247056484222,-0.3550562262535095,0.21360798180103302,0.18586161732673645,0.14828892052173615,0.3080238103866577,-0.2962314784526825,0.02807866781949997,-0.04767072945833206,-0.11456894129514694,-0.2700916528701782,0.2658888101577759,-0.21180199086666107,-0.06189259886741638,-0.03569597378373146,0.2706323564052582,-0.3535795509815216,-0.06190940737724304,-0.007185440044850111,-1.108357548713684,-0.06000077724456787,0.19572393596172333,-0.3046272397041321,0.2229224592447281,-0.16581331193447113,0.4653356373310089,0.4229033589363098,-0.02277335152029991,-0.1121509000658989,-0.4814225435256958,0.4357556104660034,-0.08285622298717499,0.21131889522075653,-0.27578943967819214,0.37133464217185974,0.13664807379245758,-0.09488660097122192,-0.03191699460148811,0.14899779856204987,0.2720329165458679,0.1353660672903061,-0.341526597738266,-0.07365187257528305,0.23782801628112793,-0.07523702830076218,0.2685980498790741,0.06972463428974152,0.15496626496315002,-0.2117370367050171,-0.04057139530777931,0.009993928484618664,0.262609601020813,-0.08974041044712067,-0.18529388308525085,-0.14214257895946503,0.19127322733402252,0.015021314844489098,-0.006269088480621576,-0.09293915331363678,-0.1054733470082283,-0.38252678513526917,0.2797471880912781,-0.029874322935938835,0.3371780812740326,0.048988088965415955,0.2965945303440094,-0.12091685831546783,-0.04664801061153412,0.34283190965652466,0.2909582257270813,-0.10281534492969513,0.33859044313430786,-0.0283462293446064,-0.14881004393100739,-0.029329856857657433,0.12059833854436874,-0.22335167229175568,0.01462648157030344,0.19054816663265228,-0.1807858645915985,-0.05738205835223198,-0.4044595956802368,-0.10550971329212189,0.053795840591192245,0.026255596429109573,-0.12974397838115692,-0.12121501564979553,0.031717777252197266,-0.0062714433297514915,-0.25514280796051025,0.038353513926267624,-0.21858350932598114,0.06953596323728561,-0.11640379577875137,-0.3838748037815094,0.3181231617927551,0.2570840120315552,-0.15191805362701416,-0.08095085620880127,-0.14684122800827026,0.11965535581111908,-0.2483869343996048,0.32537105679512024,0.13621410727500916,-0.0632363110780716,0.09335005283355713,-0.2122652381658554,-0.297179251909256,0.11833838373422623,-0.1087309941649437,0.2371300309896469,0.14825405180454254,0.07319877296686172,0.18136657774448395,-0.3556159734725952,-0.272872656583786,-0.07323426753282547,-0.08617982268333435,-0.4617379605770111,0.43539848923683167,0.2927379012107849,0.06965000182390213,0.15346448123455048,0.1131378635764122,-0.24678094685077667,-0.6303330063819885,1.0509371757507324,0.11554700136184692,0.14884230494499207,-0.24207118153572083,0.43112456798553467,-0.04879317432641983,-0.16329562664031982,-0.3222782611846924,0.1406303197145462,-0.03770400956273079,0.05313078314065933,-0.1695040762424469,0.251771479845047,0.14406822621822357,0.04483228176832199,0.4344596266746521,-0.16558896005153656,-0.16999518871307373,-0.013315252959728241,-0.2505098283290863,-0.19846144318580627,0.09940285235643387,0.11178116500377655,-0.02908569946885109,-0.07093237340450287,-0.05161436274647713,0.059719111770391464,0.003989852499216795,-0.3422583341598511,0.1544319987297058,0.20781011879444122,-0.09226137399673462,0.1460302621126175,0.33475324511528015,-0.27834680676460266,-0.11474635452032089,-0.11202465742826462,0.0853695347905159,0.21808010339736938,0.5020411014556885,-0.34372204542160034,-0.021965347230434418,0.3705870509147644,-0.08746780455112457,-0.3789219260215759,0.2804256081581116,1.077695369720459,-0.09446235001087189,-0.31685566902160645,-0.038418594747781754,0.08363254368305206,-0.054118216037750244,0.24331431090831757,-0.08466213196516037,-0.22790631651878357,-0.28396159410476685,0.14729152619838715,0.11478515714406967,0.010041256435215473,-0.14881695806980133,-0.2841923236846924,-0.09826977550983429,0.00563290249556303,-0.037179283797740936,0.109944187104702,0.20705629885196686,-0.16824012994766235,0.34394484758377075,-0.09028437733650208,-0.05373304709792137,-0.4970834255218506,0.2484847754240036,0.33839863538742065,0.12196951359510422,0.2545902729034424,-0.09685303270816803,0.43744683265686035,-0.20461393892765045,0.1980966180562973,-0.014487560838460922,0.2052401900291443,0.1001255065202713,-0.06276693195104599,-0.221729576587677,-0.04224507138133049,0.40732893347740173,0.024961894378066063,-0.019060395658016205,0.06875345855951309,0.1347433477640152,-0.39697444438934326,-0.14837782084941864,-0.028781183063983917,-0.3747195601463318,-0.03608794882893562,-0.024791015312075615,0.13861075043678284,0.19340941309928894,0.2787725329399109,-0.0899982675909996,-0.057309750467538834,0.09473112970590591,0.09432801604270935,0.3058040738105774,-0.13734528422355652,-0.04525092616677284,0.3448162078857422,-0.3687567710876465,0.4040061831474304,0.034089017659425735,-0.18885822594165802,0.06487472355365753,-0.034899283200502396,-0.20460039377212524,0.024536482989788055,0.23785024881362915,0.10949172079563141,0.23658812046051025,-0.20792867243289948,-0.18683433532714844,-0.16706401109695435,-0.1356867253780365,-0.08282315731048584,-0.11368923634290695,-0.03926188498735428,-0.036894820630550385,0.2672962546348572,0.10611020773649216,-0.032661281526088715,-0.3892984390258789,-0.048926401883363724,0.1671791970729828,-0.14386628568172455,-0.25530877709388733,-0.12804758548736572,-0.017602406442165375,-0.06352288275957108,0.32945916056632996,-0.03188908100128174,-0.12039017677307129,0.117656409740448,-0.08560402691364288,-0.13374483585357666,0.061049751937389374,-0.12794524431228638,-0.12078431993722916,-0.09742370992898941,-0.07339450716972351,0.320914089679718,0.09742053598165512,0.045092176645994186,-0.08346215635538101,0.002284061862155795,-0.05863838642835617,0.35704168677330017,-0.1678997278213501,0.09250155836343765,0.08373190462589264,-0.11993083357810974,-0.1274632066488266,-0.17007863521575928,-0.014681614004075527,0.006428560242056847,-0.3086514174938202,0.3811933398246765,-0.02639252506196499,0.05886099115014076,-0.12537120282649994,-0.20002895593643188,-0.1604272425174713,-0.07310868054628372,-0.015221316367387772,0.10199660062789917,-0.273107647895813,-0.4221169650554657,-0.1801808923482895,-0.2007419914007187,-0.07079656422138214,0.08960293978452682,0.3672215938568115,-0.11586739122867584,-0.04992135614156723,0.5568405985832214,0.3686735928058624,0.060836754739284515,-0.024469852447509766,-0.26649656891822815,0.23715490102767944,0.38433361053466797,0.22565385699272156,0.2712753713130951,0.09414125978946686,-0.04046217352151871,0.24045272171497345,-0.036222297698259354,-0.2932371497154236,0.46025946736335754,0.06332223862409592,-0.250903844833374,-0.15008488297462463,-0.010923017747700214,-0.2399010956287384,-0.0876927375793457,-0.1335121989250183,0.04254825785756111,0.1789158135652542,-0.26977720856666565,0.07642775028944016,-0.5694039463996887,0.01972515694797039,-0.1697910577058792,-0.04565634950995445,0.10988131910562515,0.015896039083600044,-0.29189881682395935,0.36590543389320374,0.021452540531754494,-0.16206669807434082,0.373830646276474,0.07686306536197662,0.048097606748342514,-0.25567665696144104,-0.05430598184466362,-0.1879369467496872,0.06146678701043129,-0.19516588747501373,0.018521716818213463,0.04691268876194954,0.4609028100967407,0.03889094293117523,0.019380467012524605,-0.055941998958587646,-0.37794244289398193,-0.07091772556304932,-0.1357412189245224,-0.10853888839483261,0.20999859273433685,0.13852457702159882,0.1471695899963379,0.021859336644411087,0.270994633436203,-0.08047370612621307,0.005541699938476086,0.007521124556660652,-0.4929150640964508,-0.24646593630313873,0.09663660079240799,-0.33518654108047485,-0.20081841945648193,0.059702903032302856,-0.14134719967842102,-0.3619426190853119,0.5602784752845764,-0.21049414575099945,-0.2513277232646942,-0.11519871652126312,0.05554315075278282,-0.07940591126680374,-0.13192471861839294,-0.25173330307006836,0.36336058378219604,-0.08545397222042084,0.07547911256551743,-0.12324605882167816,0.29843977093696594,-0.04832574352622032,-0.19332152605056763,-0.060779258608818054,-0.0059720431454479694,-0.10829349607229233,0.17134138941764832,-0.28129419684410095,0.09515536576509476,0.18723537027835846,-0.25637975335121155,-0.15295721590518951,0.16829806566238403,-0.08164422959089279,-0.1091514304280281,-0.28490933775901794,0.0007548282155767083,0.36076438426971436,0.5846854448318481,0.22629474103450775,-0.01536251325160265,0.35465967655181885,0.0922180637717247,-0.2863234579563141,-0.09292209893465042,0.468517005443573,0.23058728873729706,-0.20231208205223083,-0.042328380048274994,-0.32806146144866943,0.12645286321640015,0.322513222694397,-0.16467785835266113,-0.07610486447811127,-0.3475029468536377,-0.0859135091304779,-0.07588199526071548,0.14633092284202576,0.08507350832223892,0.3994653522968292,0.10920099914073944,-0.0010385889327153563,-0.20326633751392365,0.36877337098121643,-0.17990228533744812,-0.10717149823904037,-0.3609144687652588,-0.1730872094631195,-0.05028090626001358,0.08205344527959824,0.039043061435222626,0.04339639097452164,0.22359392046928406,-0.11488611996173859,-0.030537515878677368,0.05285795405507088,0.07716147601604462,-0.1049019917845726,0.04171399399638176,0.06959611177444458,0.004860320128500462,0.12666858732700348,0.03968193009495735,0.008654999546706676,-0.011007486842572689,0.00508460309356451,-0.06293606758117676,0.04585348069667816,-0.07785773277282715,0.22760449349880219,-2.3297994630411267e-05,0.10477199405431747,-0.3023292124271393,-0.017286056652665138,0.044720977544784546,-0.032772645354270935,-0.20624147355556488,-0.3928180932998657,0.10457094013690948,-0.1798255294561386,-0.27497854828834534,-0.4309903681278229,-0.04835028946399689,-0.06719502806663513,0.2933233976364136,0.05230933055281639,-0.10211815685033798,0.07525308430194855,0.20446427166461945,0.32573673129081726,-0.1089550256729126,-0.11805354803800583,-0.2413249909877777,0.09355724602937698,-0.05306461453437805,0.05369655042886734,-0.17668883502483368,-0.018764546141028404,0.23344174027442932,-0.12874555587768555,-0.16599978506565094,0.20023848116397858,0.17405790090560913,-0.26212358474731445,0.11450538784265518,0.03607654571533203,0.022441629320383072,0.06907469779253006,-0.07072652876377106,-0.3609330952167511,0.1884363889694214,0.036912716925144196,0.502082884311676,0.011882627382874489,-0.14297330379486084,0.06109471619129181,-0.15114927291870117,0.18695664405822754,-0.27824667096138,-0.46313029527664185,0.29205843806266785,-0.0833216980099678,-0.1333652287721634,-0.033810704946517944,0.2593349814414978,0.016433540731668472,0.34189146757125854,0.027847204357385635,0.09776858985424042,-0.15054193139076233,0.07104609161615372,-0.19072547554969788,-0.029166795313358307,-0.3151695132255554,0.3573373258113861,-0.037453096359968185,0.1307630091905594,0.20995277166366577,0.42946404218673706,-0.07262495160102844,-0.10609453171491623,0.4892864525318146,-0.2689593732357025,0.17546525597572327,0.3122563660144806,0.31827396154403687,-0.038885850459337234,0.0020520302932709455,0.5328559279441833,-0.27925509214401245,0.2724248468875885,0.017113497480750084,-0.025134753435850143,0.3166424036026001,0.08074409514665604,0.004267056938260794,0.42981430888175964,-0.19827227294445038,0.20458796620368958,-0.07052212953567505,0.14697951078414917,0.05480366200208664,-0.17768314480781555,-0.0496312752366066,-0.14420758187770844,-0.16682496666908264,-0.4034879803657532,-0.3721534311771393,-0.001031629741191864,-0.30133354663848877,-0.2106669545173645,-0.14905059337615967,-0.0157408956438303,-0.34553584456443787,-0.02001062035560608,0.11722718179225922,0.05658061429858208,-0.3517201244831085,0.3691926598548889,-0.3035532832145691,-0.09801032394170761,-0.031989578157663345,0.19702526926994324,0.07765644788742065,-0.018930913880467415,-0.257474809885025,-0.11366815865039825,-0.1699160784482956,0.15794140100479126,-0.008216828107833862,0.008778850547969341,0.31471186876296997,0.1297426074743271,0.06892649829387665,-0.0022748280316591263,-0.21866562962532043,-0.05568242445588112,0.1282339245080948,0.14005015790462494,0.11277025938034058,0.40856775641441345,-0.0441475436091423,-0.0006007887423038483,0.09234006702899933,-0.25392043590545654,-0.3949601352214813,-4.947953224182129,-0.19081634283065796,0.3589295744895935,-0.17536093294620514,0.020758405327796936,0.17404749989509583,-0.08631803840398788,0.10304007679224014,0.1926373988389969,0.06396361440420151,-0.2978355586528778,0.6565161943435669,-0.1317756325006485,0.021300241351127625,-0.31774017214775085,0.4802180230617523,-0.07202604413032532,-0.17447338998317719,-0.036854397505521774,0.2508469521999359,-0.09541204571723938,-0.13518166542053223,0.0015434605302289128,0.17906588315963745,0.31272321939468384,-0.0959118902683258,0.08444296568632126,0.2739794850349426,0.0677882730960846,0.08192582428455353,-0.20762182772159576,0.3588712513446808,0.10154149681329727,0.02491866610944271,-0.010974821634590626,0.4336327016353607,0.45207199454307556,0.11937784403562546,-0.003960492089390755,-0.08457351475954056,0.7857504487037659,0.10124193876981735,-0.2090005725622177,-0.09109429270029068,-0.5258617997169495,-0.3749848008155823,0.02803656831383705,-0.007756536826491356,-0.11336875706911087,0.06700728088617325,0.20454807579517365,-0.11932068318128586,0.16059650480747223,0.21983732283115387,0.2675155997276306,-0.07372970134019852,0.2652110755443573,0.009380846284329891,0.15693771839141846,0.057314541190862656,-0.11254861950874329,-0.030321629717946053,-0.15108056366443634,0.0026560374535620213,0.03614159673452377,0.21668393909931183,-0.14312444627285004,-0.05586761236190796,-0.10998881608247757,0.2642955780029297,0.4912588894367218,-0.057888101786375046,-0.13101202249526978,0.00988952349871397,0.1083112508058548,0.14732955396175385,0.46669572591781616,0.2413945198059082,0.07686587423086166,0.20136643946170807,0.19289365410804749,0.25492265820503235,-0.27817195653915405,0.01849481835961342,0.2774047255516052,-0.35512807965278625,0.05556109920144081,-0.04840531945228577,0.09386740624904633,-0.29177382588386536,-0.4692551791667938,-0.09450143575668335,0.07391201704740524,-0.09396660327911377,0.0364648811519146,-0.04360213875770569,-0.014711817726492882,-0.37905868887901306,0.03506552800536156,0.3016868531703949,-0.12064316123723984,-0.2605997323989868,0.21741557121276855,0.024403398856520653,-0.5002363920211792,-0.22501254081726074,-0.2830984890460968,0.15045666694641113,-0.017580220475792885,0.38820376992225647,-0.23356503248214722,-0.07407831400632858,-0.030072178691625595,0.2740696966648102,0.19995485246181488,-0.1618601381778717,0.10301581770181656,0.11730781942605972,0.31631654500961304,-0.02685520425438881
H,-0.05607864633202553,0.057041823863983154,-0.2443682998418808,0.06797847151756287,-0.09149082005023956,-0.2049490064382553,-0.3343437910079956,0.30864381790161133,-0.14135274291038513,0.14140959084033966,-0.03882261738181114,0.04545086622238159,0.20245461165905,0.13157591223716736,-0.2071361541748047,-0.11389817297458649,-0.03668689727783203,-0.11032792180776596,0.08958803862333298,0.1330116242170334,-0.2141122817993164,0.0236525759100914,0.1919957846403122,-0.04970896244049072,0.0826730951666832,0.1340508759021759,-0.25653043389320374,0.2530525028705597,0.15928460657596588,-0.4689595699310303,0.23309120535850525,-0.21279338002204895,0.02804550714790821,-0.18893194198608398,-0.2205101102590561,0.2723292410373688,0.05462697520852089,0.2536031901836395,0.12482991814613342,-0.05281293764710426,-0.2177731990814209,-0.007810218725353479,-0.13557422161102295,-0.09965389966964722,0.19813376665115356,0.20807819068431854,-0.10243072360754013,-0.1105538085103035,-0.093610480427742,-0.21509294211864471,0.2780545651912689,0.24724100530147552,-0.3457036018371582,-0.02137630060315132,-0.18185241520404816,-0.036047108471393585,0.3541087210178375,0.02346021495759487,-0.06895968317985535,-0.12640927731990814,-0.25105300545692444,0.2515559792518616,-0.28906235098838806,0.00833162572234869,-0.05704660341143608,0.39200642704963684,-0.20582695305347443,-0.025354010984301567,-0.25261300802230835,0.10897232592105865,0.11803331971168518,-0.12854677438735962,0.05167572572827339,-0.2130732387304306,-0.056460607796907425,-0.06532125174999237,0.015098272822797298,0.23969829082489014,0.14768926799297333,0.0686296671628952,0.06322735548019409,0.019253434613347054,-0.06551219522953033,-0.35844096541404724,-0.3022959232330322,0.09367983788251877,0.011369643732905388,0.4750196039676666,0.18048067390918732,-0.09606630355119705,-0.15422317385673523,-0.04819111153483391,-0.3977257311344147,-0.0002927050518337637,0.1750912070274353,0.07876497507095337,-0.1273922473192215,0.06381069868803024,0.03016355074942112,-0.23290829360485077,-0.09996788203716278,0.24365384876728058,-0.057936329394578934,-0.09357523173093796,-0.0890793427824974,-0.31938663125038147,-0.3400576710700989,0.04399393871426582,-0.15339897572994232,0.2232484668493271,-0.2512355446815491,0.3118261992931366,0.13037598133087158,-0.09869175404310226,-0.10299497097730637,-0.050329066812992096,-0.14753039181232452,-0.23368442058563232,0.07987048476934433,-0.15291954576969147,-0.13800504803657532,0.08468451350927353,-0.11080645024776459,0.4829486310482025,-0.017808347940444946,-0.16368623077869415,0.17988350987434387,-0.1995662897825241,0.09948234260082245,0.39395442605018616,-0.023778419941663742,0.2572212517261505,-0.07598719000816345,-0.013058556243777275,0.04873744398355484,0.3824366331100464,0.11851652711629868,-0.2721291780471802,-0.07185322046279907,0.1599625200033188,0.18944919109344482,-0.05900198593735695,0.0454258918762207,0.18125241994857788,-0.056411221623420715,0.03956759348511696,-0.46371597051620483,0.1521991789340973,-0.0398094542324543,-0.16531024873256683,-0.03587307408452034,-0.027798280119895935,-0.21303486824035645,-0.15190458297729492,0.12442286312580109,-0.1692790985107422,-0.1035328283905983,0.26744234561920166,-0.12725798785686493,-0.0028067324310541153,0.142409086227417,0.19435159862041473,-0.21526436507701874,-0.14595280587673187,0.10859707742929459,0.2614288330078125,-0.06374681740999222,-0.1860024780035019,-0.09058953076601028,0.08993222564458847,-0.23549805581569672,-0.031511418521404266,0.20000915229320526,0.2105402946472168,0.1302511990070343,-0.058881595730781555,-0.1570499688386917,-0.07144266366958618,0.0650472491979599,0.29258066415786743,-0.01524543296545744,0.1680045872926712,0.2306007593870163,-0.2813330292701721,-0.17283017933368683,-0.026751117780804634,0.06563595682382584,0.026684552431106567,-0.04503490775823593,0.14467187225818634,0.003782205516472459,0.013839182443916798,-0.387665331363678,0.16226887702941895,0.4326959252357483,-0.024093233048915863,-0.20030616223812103,0.296866774559021,-0.058044448494911194,0.04701858386397362,0.32884910702705383,0.049795713275671005,0.39307349920272827,-0.0747797042131424,-0.2360561341047287,-0.347128301858902,-0.05419323593378067,-0.40813836455345154,0.12914437055587769,-0.40137115120887756,0.2055504322052002,-0.25756514072418213,-0.10248763859272003,-0.1614159643650055,0.08734797686338425,-0.14558184146881104,0.1499428004026413,0.2609357535839081,0.01437853928655386,0.05839390307664871,-0.01602809503674507,0.020074063912034035,0.13928194344043732,-0.1299419403076172,0.133896604180336,-0.23670770227909088,-0.1030009537935257,-0.08689460903406143,-0.19958290457725525,-0.11305969208478928,-0.05181720480322838,0.0550072081387043,0.10637320578098297,0.10857412219047546,-3.6137747764587402,-0.07348327338695526,0.27320054173469543,0.3609757125377655,-0.2002093344926834,0.011500224471092224,0.1537979692220688,0.1686927080154419,-0.47365111112594604,-0.014603151939809322,0.3157860338687897,0.153685063123703,0.18691548705101013,-0.2147017866373062,-0.09779585152864456,0.3196602165699005,-0.25664636492729187,0.002200494287535548,0.14374437928199768,0.37753039598464966,-0.1497737318277359,-0.18291011452674866,-0.06289587914943695,-0.12709683179855347,-0.17121173441410065,-0.06701255589723587,-0.08949597179889679,-0.07616829872131348,-0.2656182646751404,-0.05110011622309685,0.3399917483329773,-0.04137830436229706,-0.06491638720035553,-0.1704050451517105,-0.09211932867765427,0.38919562101364136,0.35005736351013184,-0.017575008794665337,-0.06072533503174782,-0.15861870348453522,0.25223401188850403,0.1443885713815689,0.09535662084817886,0.12420690059661865,-0.08517052978277206,0.17064166069030762,0.13184092938899994,0.24052037298679352,0.1148291677236557,0.0881642997264862,-0.33268973231315613,0.022179407998919487,-0.09828151017427444,-0.07704124599695206,0.11101075261831284,0.04770764708518982,0.1747860610485077,0.08779383450746536,0.02921578474342823,0.327994704246521,0.032402489334344864,0.2352648824453354,-0.4418656826019287,0.10523761063814163,0.22934339940547943,0.10149402171373367,0.22858427464962006,0.03642395883798599,-0.1028447151184082,-0.17602215707302094,0.05213689059019089,0.25474172830581665,0.1891596019268036,-0.10920343548059464,0.10530983656644821,-0.11656103283166885,0.16159012913703918,-0.4040338397026062,-0.01478672493249178,-0.039642442017793655,-0.10249082744121552,-0.21399371325969696,-0.03318081051111221,0.0413644015789032,-0.46653100848197937,0.23442837595939636,-0.20540297031402588,0.02989271655678749,-0.10340476781129837,-0.06172600015997887,-0.23997348546981812,0.13382737338542938,-0.12239928543567657,0.02725944109261036,-0.07588977366685867,0.013215765357017517,-0.17352627217769623,0.15586982667446136,0.04484065622091293,0.19048815965652466,-0.21087782084941864,-0.10497858375310898,-0.028100350871682167,0.08850203454494476,0.22541895508766174,-0.010445872321724892,0.051772844046354294,-0.052104901522397995,0.26136332750320435,-0.18966051936149597,-0.3358496427536011,-0.04555564746260643,-0.18325932323932648,0.15074948966503143,0.2400103509426117,-0.0923064723610878,-0.08619936555624008,0.05147726088762283,-0.38489794731140137,0.16959638893604279,-0.0037340105045586824,0.4835008382797241,-0.278028666973114,0.11849499493837357,-0.1665973961353302,-0.21785441040992737,0.16040244698524475,-0.15052010118961334,-0.23460626602172852,-0.11535968631505966,0.06311704218387604,0.17788606882095337,0.41664156317710876,0.01972080208361149,-0.04587104916572571,0.10510467737913132,0.21305479109287262,-0.20516516268253326,-0.12274027615785599,0.03361978381872177,0.1988212615251541,0.11146694421768188,0.03616487979888916,0.2652260363101959,0.18061120808124542,-0.03337309509515762,-0.08365782350301743,0.04556858167052269,-0.2108476161956787,0.06530795246362686,0.3821849822998047,-0.07556353509426117,-0.17290639877319336,-0.03241148591041565,-0.18901006877422333,0.2017054259777069,0.07443312555551529,-0.17914335429668427,0.12803520262241364,-0.054809536784887314,-0.38955157995224,0.07109933346509933,-0.057920344173908234,-0.0057441843673586845,-0.2693324685096741,-0.457283616065979,-0.08671288192272186,0.18275102972984314,-0.242015540599823,-0.15629459917545319,-0.045906852930784225,-0.15219765901565552,0.18316596746444702,0.19284625351428986,-0.06965820491313934,0.08020568639039993,-0.12294219434261322,0.012233592569828033,-0.03750971704721451,-0.014786566607654095,-0.10075763612985611,0.3373107612133026,-0.029436379671096802,-0.14836673438549042,0.04564904049038887,0.26514551043510437,0.09177286922931671,-0.2725219428539276,0.22652561962604523,0.3363586366176605,-0.11654835939407349,0.17871110141277313,-0.168947234749794,-0.04794539138674736,-0.002849515061825514,0.2290036827325821,0.019313877448439598,0.11019015312194824,-0.13688722252845764,0.09898992627859116,-0.02796904556453228,0.20746126770973206,0.05952976644039154,0.1653345674276352,-0.036163587123155594,0.3140846788883209,-0.10267549008131027,0.14457914233207703,-0.06000737100839615,-0.07454122602939606,-0.2983006238937378,-0.20703446865081787,0.04417853429913521,-0.11600050330162048,-0.20727556943893433,-0.17971530556678772,-0.19668662548065186,-0.004983854945749044,-0.27873650193214417,0.021534595638513565,-0.07577135413885117,0.015851831063628197,0.2375633865594864,-0.03463391959667206,-0.17213918268680573,0.14614517986774445,0.2651884853839874,0.015643853694200516,-0.08364714682102203,-0.07708685845136642,0.0903845950961113,-0.24519777297973633,0.2725292444229126,-0.16924217343330383,-0.29685473442077637,-0.10932956635951996,0.15480177104473114,0.32017889618873596,0.08092065900564194,0.18010278046131134,0.2917029559612274,-0.20714539289474487,-0.17443974316120148,0.15739436447620392,-0.3893345594406128,-0.10333306342363358,-0.18744689226150513,0.08984384685754776,-0.21010375022888184,-0.2115514725446701,0.46423447132110596,0.16754241287708282,-0.12347374856472015,-0.2196083813905716,-0.11965058743953705,-0.28603532910346985,-0.09198755770921707,0.08822168409824371,0.11792902648448944,-0.16482600569725037,0.010737204924225807,0.10156089067459106,-0.02562270499765873,-0.04544059932231903,-0.046510759741067886,0.10740502923727036,-0.48750942945480347,0.16905125975608826,-0.20969949662685394,-0.2958712577819824,-0.19263701140880585,0.16722458600997925,-0.16527973115444183,0.30107584595680237,-0.04970427602529526,0.2848779261112213,-0.11220543086528778,0.16094906628131866,0.014180075377225876,0.17426927387714386,0.03682880476117134,0.03153578191995621,-0.013553941622376442,-0.3166249692440033,-0.18548361957073212,-0.25951316952705383,-0.12058640271425247,-0.19747091829776764,0.057231005281209946,0.18343693017959595,0.15134096145629883,-0.14543810486793518,-0.03221413865685463,-0.07028838992118835,-0.02505994401872158,0.024569494649767876,-0.04611796513199806,-0.09766077250242233,-0.08089923858642578,-0.11135245859622955,-0.18683288991451263,-0.028302496299147606,0.14125178754329681,0.029607804492115974,0.06306615471839905,-0.03138699755072594,0.05603993684053421,-0.42641380429267883,0.051492247730493546,0.08366242796182632,-0.3336603343486786,-0.10700281709432602,0.021776232868433,0.297250896692276,0.04388982430100441,0.16813504695892334,-0.05478481203317642,0.11524394899606705,-0.08326350897550583,0.1614847332239151,-0.09247331321239471,-0.045299116522073746,-0.05933472141623497,-0.14152635633945465,0.25803419947624207,-0.0063791112042963505,0.01610078662633896,-0.08674511313438416,0.11666297912597656,0.09669782221317291,-0.07149767130613327,-0.4221830368041992,0.3064243495464325,0.10375240445137024,-0.1811836063861847,0.10839542746543884,0.002761524636298418,-0.08701319992542267,0.0968816727399826,-0.05982504412531853,-0.18091951310634613,0.19831882417201996,-0.1090037003159523,-0.33647942543029785,-0.14999990165233612,0.007021114230155945,0.05102928355336189,0.1781974732875824,0.23756614327430725,-1.1851356029510498,0.04454566538333893,0.4650685489177704,-0.1163666769862175,0.16573376953601837,-0.0800686925649643,0.3703690767288208,0.3387688398361206,0.0070450385101139545,-0.24506069719791412,-0.3108028173446655,0.3490571081638336,-0.02268114686012268,0.008165363222360611,0.06559094786643982,0.31256863474845886,0.20930273830890656,0.03157404810190201,-0.06609296798706055,0.17951700091362,-0.04270651191473007,0.03226224333047867,-0.07724479585886002,0.02874702401459217,0.10701197385787964,-0.11556167155504227,0.2731334865093231,0.23600496351718903,0.004867636598646641,-0.016081832349300385,-0.08871832489967346,-0.2146998792886734,-0.0629965141415596,0.10235381126403809,-0.07846459001302719,-0.24331656098365784,0.2591766119003296,0.04196128621697426,0.021886052563786507,0.18221066892147064,-0.2079406976699829,-0.07874894142150879,0.05897729471325874,-0.18548305332660675,-0.11494477838277817,0.1577102243900299,-0.04620964825153351,-0.12709075212478638,0.13931767642498016,-0.13508933782577515,0.22415931522846222,-0.09068314731121063,0.24252177774906158,0.15712986886501312,-0.0716177225112915,0.05828756093978882,-0.07559093832969666,0.20137155055999756,-0.11862002313137054,0.20140749216079712,-0.3127047121524811,-0.09616467356681824,-0.2132510542869568,-0.15987953543663025,-0.10184590518474579,0.011860410682857037,-0.18837736546993256,-0.03986402973532677,-0.24642647802829742,-0.24915842711925507,-0.3091444671154022,0.11371324956417084,-0.13066606223583221,-0.19134686887264252,-0.3032897114753723,-0.3103516399860382,0.19722828269004822,0.3195447027683258,0.0743829756975174,-0.36161693930625916,0.10103236138820648,-0.11215060204267502,-0.1752540022134781,0.18440409004688263,0.2690034508705139,0.013652517460286617,0.0788368210196495,0.2538643181324005,-0.29893049597740173,0.1412026435136795,0.037361226975917816,0.2362518161535263,0.16283157467842102,0.19725678861141205,0.2165929228067398,0.021893272176384926,0.0389145165681839,0.1883641928434372,-0.2058994323015213,-0.26140645146369934,0.3864845633506775,0.10997018218040466,-0.03662357106804848,0.00571425398811698,0.28107619285583496,-0.24106498062610626,-0.3120324909687042,0.9186074733734131,0.26294785737991333,0.03707693889737129,-0.06951393187046051,0.17892281711101532,-0.028328023850917816,-0.293122798204422,-0.4863463044166565,0.007227835711091757,0.015264623798429966,0.35201963782310486,-0.021126095205545425,0.07309620827436447,0.17855125665664673,0.16436894237995148,-0.04906829074025154,-0.14369462430477142,-5.227699875831604e-05,0.2227596491575241,0.10774686187505722,-0.35987621545791626,0.31079337000846863,0.16306954622268677,0.0537891685962677,-0.08025361597537994,0.08665331453084946,0.2552984058856964,0.10521974414587021,0.04569319635629654,0.01780041493475437,0.22842851281166077,-0.2306084930896759,0.07446973025798798,0.2467809021472931,-0.17018063366413116,-0.08663179725408554,0.2603740692138672,0.1214158907532692,0.03576226532459259,0.06266811490058899,-0.3090134561061859,0.0558166466653347,0.2526620924472809,-0.13413263857364655,-0.1259036511182785,0.15998008847236633,0.9015151858329773,-0.10915686190128326,-0.24876755475997925,0.09351388365030289,0.21326309442520142,0.031649090349674225,0.0873369351029396,-0.15765756368637085,-0.15183907747268677,-0.15402521193027496,0.04013568162918091,-0.11793778091669083,0.3653715252876282,0.051776304841041565,-0.08920713514089584,0.10513626039028168,0.1968451738357544,-0.14432808756828308,-0.021213525906205177,0.26838842034339905,-0.20287024974822998,-0.03582843020558357,-0.15170243382453918,-0.03329586610198021,-0.33932438492774963,0.3304317593574524,0.35498756170272827,0.23190441727638245,0.238565132021904,-0.144321009516716,0.056765101850032806,-0.24687546491622925,0.14535589516162872,0.05744180828332901,0.05068938434123993,0.34135502576828003,0.0848357304930687,-0.18228928744792938,0.11862380057573318,0.1599273681640625,-0.05423085764050484,-0.20221586525440216,-0.08516253530979156,-0.026402108371257782,-0.26741135120391846,0.03308655321598053,-0.25533875823020935,-0.174174964427948,0.02149459347128868,-0.09533576667308807,0.06677718460559845,0.18352365493774414,0.14364877343177795,-0.08345762640237808,-0.025893758982419968,-0.04273216426372528,-0.10838066786527634,-0.053732406347990036,-0.013960479758679867,-0.1924912929534912,-0.001487436704337597,-0.3563538193702698,0.090012326836586,-0.3596701920032501,-0.3054405152797699,-0.06598790735006332,0.018909219652414322,-0.38276994228363037,0.4480762183666229,0.2138691395521164,0.055343497544527054,-0.02863929606974125,-0.3423793315887451,-0.00626614922657609,-0.009614968672394753,-0.08250033855438232,-0.11945535987615585,-0.21843501925468445,-0.16059553623199463,-0.15869177877902985,0.07396107912063599,0.1500985026359558,0.30159270763397217,-0.08694179356098175,-0.12333609908819199,-0.04856148734688759,0.09601032733917236,-0.27750760316848755,-0.006852845661342144,-0.1873375028371811,-0.2878425121307373,-0.05960729718208313,-0.25992149114608765,-0.10150177031755447,-0.08616583794355392,0.0609147883951664,-0.06960909813642502,0.02845967561006546,0.05729410797357559,0.15823544561862946,-0.16249878704547882,0.08191139250993729,0.13238395750522614,-0.20386411249637604,0.03858451172709465,-0.20855331420898438,0.25225546956062317,0.01887202262878418,0.5542698502540588,-0.12644165754318237,0.014628655277192593,-0.017263473942875862,0.12732434272766113,0.06634553521871567,-0.03359009698033333,0.10345485061407089,0.12715883553028107,-0.18624545633792877,0.12977789342403412,-0.136121928691864,0.273046612739563,-0.018641876056790352,-0.0021437187679111958,0.012593862600624561,-0.20322784781455994,0.15621274709701538,0.14170950651168823,-0.10481932014226913,-0.49115821719169617,-0.07655133306980133,0.21158555150032043,-0.0765756368637085,0.2577124536037445,-0.08904215693473816,-0.22324347496032715,0.09513890743255615,0.40441811084747314,0.19277340173721313,0.1260823905467987,-0.21162712574005127,-0.07649116218090057,0.1517074853181839,0.4757080376148224,0.4027888774871826,0.10542214661836624,0.03827537223696709,-0.005609186366200447,0.03634331375360489,0.10742907971143723,-0.3070121705532074,0.06272926926612854,0.30664288997650146,0.035071127116680145,0.10502229630947113,0.04110013693571091,-0.21272903680801392,0.08249795436859131,-0.10980851203203201,-0.11810135841369629,0.38890376687049866,-0.04636682942509651,0.12211079895496368,-0.08036559075117111,-0.25548121333122253,0.03515630587935448,0.08731105178594589,-0.05300042778253555,-0.004660216625779867,-0.19810724258422852,0.30292388796806335,0.08266935497522354,-0.037712253630161285,0.058951348066329956,0.0848611518740654,0.03513333573937416,0.06809498369693756,0.1796720176935196,0.2205546498298645,0.0075696976855397224,-0.15623383224010468,-0.06991570442914963,0.16114677488803864,0.5529242157936096,0.22159384191036224,0.2238399237394333,-0.16740365326404572,-0.5111985206604004,-0.213994562625885,0.04774187505245209,0.17847368121147156,0.06068209558725357,0.30766743421554565,0.13082453608512878,-0.08785279095172882,0.27862173318862915,-0.06823039799928665,-0.02419871836900711,0.13675740361213684,-0.18222485482692719,-0.2542800009250641,0.22458036243915558,-0.050603799521923065,-0.11375579982995987,0.0857514813542366,-0.2609149217605591,-0.0703723132610321,0.4968598484992981,-0.251868337392807,0.06373726576566696,0.2033165842294693,-0.24148614704608917,-0.07982384413480759,-0.05272119492292404,-0.017253896221518517,0.44630351662635803,0.03978961706161499,0.25690120458602905,-0.10268496721982956,0.02041255682706833,0.11663170903921127,-0.19807939231395721,-0.23195648193359375,0.09858916699886322,0.15254880487918854,0.14674997329711914,0.12467250227928162,0.10748711973428726,0.11716016381978989,-0.13470697402954102,-0.14324568212032318,0.06982141733169556,0.0838564857840538,-0.12013644725084305,-0.17097191512584686,-0.027443552389740944,0.12404696643352509,0.15338176488876343,0.03216224163770676,0.09311544895172119,0.05716647207736969,0.01388578675687313,-0.21774552762508392,-0.22018930315971375,0.25441721081733704,0.12083166092634201,-0.12745115160942078,0.011476420797407627,-0.2630913257598877,-0.022510183975100517,0.1716550886631012,-0.18079939484596252,-0.13145717978477478,-0.05306961387395859,-0.1414623260498047,-0.015321644023060799,0.05241912603378296,0.09648613631725311,0.11596900224685669,-0.20513778924942017,0.12316238880157471,-0.07973606139421463,0.28964799642562866,0.10748067498207092,-0.22768084704875946,-0.33585646748542786,-0.018922295421361923,0.09246432036161423,-0.07928218692541122,0.18974396586418152,0.07582859694957733,-0.12270300090312958,0.1638481616973877,-0.062411051243543625,-0.005521854385733604,-0.09107006341218948,0.10703687369823456,0.22579719126224518,-0.06063898652791977,-0.07721962779760361,-0.19865261018276215,-0.3238399922847748,0.003354201791808009,-0.20698124170303345,0.16312478482723236,0.06310208141803741,-0.1270674616098404,-0.2288006842136383,0.05861544981598854,0.32532915472984314,0.03616656735539436,-0.18195343017578125,0.04684077575802803,0.12425985932350159,-0.10960061103105545,0.06739125400781631,-0.14723677933216095,0.3195229172706604,0.10192845016717911,-0.18959397077560425,-0.30790072679519653,0.03185361623764038,-0.02776666358113289,0.4035507142543793,0.0164157897233963,-0.2212439924478531,0.05319496616721153,-0.0022031674161553383,0.3528311550617218,-0.02528751641511917,-0.07934538275003433,-0.17489415407180786,0.012671171687543392,-0.0894046500325203,-0.17339147627353668,-0.11343459784984589,-0.013099179603159428,0.22600795328617096,-0.13337990641593933,-0.19847865402698517,0.12340806424617767,0.11123520880937576,0.1127757653594017,-0.3129028081893921,0.05884552747011185,-0.12518300116062164,0.22355259954929352,-0.08031228184700012,-0.020509764552116394,-0.06600463390350342,-0.10265850275754929,0.10182792693376541,0.22904905676841736,0.011289667338132858,0.14088548719882965,0.1898866444826126,-0.27967485785484314,-0.0845758318901062,-0.4868946373462677,0.035300254821777344,-0.15487562119960785,-0.05707210674881935,-0.14443297684192657,0.12185180187225342,0.015672240406274796,0.20306675136089325,0.029645051807165146,0.1837320178747177,-0.1131918728351593,0.21511037647724152,0.01772625744342804,0.23996961116790771,-0.2708108723163605,0.013295484706759453,0.14998508989810944,0.17547917366027832,0.35521772503852844,0.43469932675361633,0.4518997371196747,-0.11483675986528397,0.43727660179138184,-0.28835371136665344,0.23024813830852509,0.19852221012115479,0.09255247563123703,-0.17680399119853973,0.06798579543828964,0.21361014246940613,-0.23065823316574097,0.07901154458522797,-0.15060549974441528,-0.14553576707839966,0.18897688388824463,-0.0284914318472147,-0.03741354122757912,0.33383408188819885,-0.046281542629003525,0.21033211052417755,0.05025169998407364,0.2745214104652405,-0.07592757791280746,-0.0708923190832138,0.1113210991024971,-0.13073459267616272,-0.006567107979208231,-0.18565154075622559,-0.24554051458835602,0.1716185361146927,-0.17647205293178558,-0.3401550054550171,-0.159984290599823,0.18107302486896515,-0.4308701455593109,0.084555484354496,0.25785186886787415,0.15936540067195892,0.0027418434619903564,0.5444720983505249,-0.026431933045387268,-0.003024125937372446,0.12388592213392258,-0.1329571008682251,-0.0869598537683487,0.017256874591112137,-0.12475176155567169,0.07893722504377365,-0.08733873814344406,-0.0893363356590271,0.01937352679669857,0.0808560699224472,0.0961448922753334,-0.11655902117490768,0.18106001615524292,-0.04223790392279625,-0.03095117211341858,-0.18573780357837677,-0.05040312558412552,0.06698600202798843,0.13801467418670654,0.42939698696136475,0.234309121966362,-0.056360743939876556,-0.2913420498371124,0.04536961391568184,-0.2551845610141754,-6.087599754333496,-0.08012010157108307,0.08268149942159653,-0.10275902599096298,-0.06710955500602722,0.13960082828998566,-0.146617129445076,0.22195462882518768,0.09415240585803986,-0.05640750005841255,-0.2484074831008911,0.5194517970085144,0.21971268951892853,0.028803518041968346,-0.3290025293827057,0.34505385160446167,-0.18183200061321259,-0.13236653804779053,-0.07996334880590439,0.20241999626159668,-0.1451808661222458,0.21266697347164154,0.10317522287368774,0.2444290965795517,0.09928108006715775,0.24689984321594238,0.07149546593427658,0.20800071954727173,-0.01765582710504532,0.47403621673583984,-0.12250801175832748,-0.10135430097579956,0.2420344203710556,0.02532871998846531,0.06116078794002533,0.25336140394210815,0.3572830557823181,0.13284215331077576,-0.018925879150629044,-0.20505817234516144,0.6305504441261292,0.13201989233493805,-0.11788475513458252,-0.06837202608585358,-0.3653325140476227,-0.299220472574234,0.0017530244076624513,0.14189764857292175,-0.003146817209199071,-0.003967611119151115,0.07098877429962158,0.10804279893636703,0.10423307120800018,-0.09717430919408798,0.12362800538539886,0.05103827640414238,0.25116443634033203,-0.014445220120251179,0.1352425366640091,-0.07517631351947784,-0.12540395557880402,-0.16020670533180237,-0.435845285654068,0.020946763455867767,0.18538369238376617,0.1825435310602188,0.0030480276327580214,-0.05459088087081909,-0.24628189206123352,0.022991154342889786,0.44233018159866333,0.263372004032135,-0.012144038453698158,0.11532001197338104,0.1369200050830841,0.19573326408863068,0.45022979378700256,0.32990047335624695,0.14164912700653076,0.18477575480937958,0.45291680097579956,0.3530484437942505,-0.10775202512741089,0.09234345704317093,0.599772036075592,-0.1375466287136078,0.25479525327682495,-0.10174692422151566,0.3701024055480957,-0.03369704633951187,-0.06470561027526855,-0.11271099746227264,-0.17486464977264404,-0.018522808328270912,0.014401513151824474,0.17447783052921295,-0.252758264541626,-0.25942495465278625,-0.10679763555526733,0.3559487760066986,-0.1902650147676468,-0.3566458523273468,0.219312384724617,-0.07826470583677292,-0.07234302908182144,0.10109584033489227,-0.08895786851644516,0.1755349487066269,0.058974556624889374,0.053868506103754044,-0.18857839703559875,-0.11062841862440109,-0.27425703406333923,0.28862982988357544,-0.004215747117996216,0.11434505879878998,-0.14794804155826569,0.026725169271230698,0.3249167203903198,-0.35777923464775085
K,-0.131089985370636,0.10771167278289795,0.05113133043050766,0.3588126301765442,0.2820092737674713,-0.32437700033187866,-0.20223890244960785,0.19315487146377563,-0.07961341738700867,0.15100717544555664,-0.1644081324338913,-0.07053536176681519,0.049096401780843735,-0.16218127310276031,-0.027694718912243843,-0.14547839760780334,0.04829981550574303,0.15771989524364471,-0.14717598259449005,-0.019645998254418373,0.05903005227446556,0.012583601288497448,0.10539256781339645,0.3116060197353363,0.15975484251976013,0.30011141300201416,-0.07034213095903397,-0.05343971773982048,0.5642116665840149,-0.08492784947156906,0.3046553432941437,-0.13111335039138794,0.08879142254590988,0.017754703760147095,0.0034035115968436003,0.20353977382183075,-0.039239443838596344,-0.23658588528633118,0.19325830042362213,-0.2791126072406769,0.1363505721092224,-0.12386905401945114,-0.04915383830666542,0.11547084152698517,-0.03896776959300041,0.2783556580543518,-0.275668203830719,-0.07312831282615662,0.010602246038615704,-0.35971251130104065,-0.09218703210353851,0.3868481516838074,0.19992075860500336,0.17738939821720123,0.1821860373020172,0.030541440472006798,-0.01822994276881218,0.028758155182003975,-0.02010209672152996,0.13402415812015533,-0.3890082538127899,0.25230827927589417,-0.0014653356047347188,-0.009757121093571186,-0.09112828224897385,0.2972712218761444,-0.18423256278038025,-0.1535700261592865,-0.398993581533432,0.016283368691802025,0.01003958284854889,-0.12980371713638306,-0.04232681542634964,-0.30660825967788696,-0.19349730014801025,0.02047794684767723,0.053816743195056915,0.233819842338562,0.25440162420272827,0.1486772745847702,0.05551064386963844,-0.23249241709709167,0.3395841419696808,0.2723819315433502,-0.18018890917301178,0.5095962285995483,-0.021289579570293427,0.4017541706562042,0.3383345603942871,-0.17146465182304382,-0.11062509566545486,0.08436945080757141,-0.3459986746311188,-0.11055153608322144,-0.2876356542110443,-0.09529727697372437,0.1007065549492836,0.213809072971344,-0.2480533868074417,-0.22531849145889282,0.012489828281104565,0.004227394703775644,-0.0666622668504715,0.015338593162596226,0.08256726711988449,-0.49902743101119995,-0.47910410165786743,-0.45496225357055664,-0.23472772538661957,0.26322513818740845,-0.14667628705501556,0.405620276927948,0.4255880117416382,-0.22975292801856995,-0.2808340787887573,0.1409778892993927,-0.31360167264938354,0.056827086955308914,0.3638762831687927,-0.19826512038707733,0.00521692493930459,-0.010159799829125404,0.03954872861504555,0.036739591509103775,0.12864111363887787,-0.34506815671920776,0.05570417270064354,-0.11464333534240723,0.185058131814003,0.2333238571882248,-0.13709160685539246,0.07777991145849228,0.17986001074314117,0.0434199795126915,0.026532724499702454,0.09628010541200638,0.06793832778930664,-0.1934095323085785,0.14699089527130127,0.10352808982133865,-0.05800551548600197,-0.30669477581977844,0.13737890124320984,0.07748802751302719,-0.0980939194560051,0.22490966320037842,-0.39033597707748413,0.11932447552680969,-0.0031651335302740335,-0.03640017658472061,-0.050638530403375626,-0.026648668572306633,-0.03957214951515198,-0.13635194301605225,0.18219542503356934,-0.2163689285516739,-0.10696382820606232,0.012310082092881203,-0.11091461032629013,-0.38487276434898376,-0.23305299878120422,0.3699864149093628,-0.5344356298446655,-0.041159503161907196,-0.3082336485385895,0.18093116581439972,-0.225204199552536,-0.09950914978981018,-0.1283499002456665,0.3958669602870941,-0.08638378977775574,-0.1222909688949585,0.0716538354754448,-0.28628408908843994,-0.1820334941148758,0.28368163108825684,-0.00043717341031879187,0.2603375315666199,0.05142780393362045,0.07909408956766129,-0.2261912077665329,-0.2376825213432312,0.26354411244392395,-0.11930347234010696,0.048053089529275894,-0.18393948674201965,0.11980916559696198,0.004493222571909428,-0.0823385939002037,0.007854962721467018,-0.043052200227975845,-0.03005950152873993,0.06507708132266998,0.12198714911937714,0.40960440039634705,0.03454755246639252,0.1677350103855133,0.15588310360908508,-0.18671391904354095,-0.21440015733242035,0.26392611861228943,0.0705648809671402,0.17493021488189697,-0.19409871101379395,-0.11652851104736328,-0.540249764919281,-0.18932734429836273,-0.429067462682724,-0.061301957815885544,-0.6654431223869324,-0.006839597597718239,0.04923019930720329,-0.09244391322135925,-0.11212735623121262,-0.005530195310711861,0.03844350203871727,-0.003287732368335128,0.12095580250024796,0.21646055579185486,0.2107653170824051,-0.20346210896968842,-0.10186938941478729,0.0024469364434480667,-0.1345905363559723,-0.34628400206565857,-0.27396467328071594,-0.08721531182527542,0.022083932533860207,-0.13664740324020386,0.1674415022134781,0.10282903164625168,0.11169494688510895,0.1381751000881195,0.07936924695968628,-4.01003360748291,-0.28883591294288635,0.5144103169441223,0.05160927399992943,-0.1537523716688156,-0.01706007309257984,-0.06415294110774994,0.17409007251262665,-0.3310568630695343,-0.10034193843603134,0.044320620596408844,0.3230092227458954,0.19924740493297577,-0.03631884977221489,-0.06775522232055664,0.24588795006275177,-0.32237574458122253,-0.16177259385585785,-0.06873738765716553,0.2237805724143982,-0.24396760761737823,0.05145709961652756,0.10953066498041153,-0.004420725628733635,-0.07925219088792801,-0.034434765577316284,0.042416248470544815,-0.027251729741692543,0.08000792562961578,-0.23189209401607513,0.13864348828792572,-0.3191501200199127,-0.1436568796634674,-0.07815501093864441,-0.18073704838752747,0.03428597003221512,0.33345896005630493,-0.064629927277565,-0.23757033050060272,-0.08976931869983673,0.1774543672800064,-0.021821456030011177,-0.13837513327598572,0.04239442199468613,0.11154662817716599,-0.21727822721004486,0.007903155870735645,-0.04355902969837189,-0.032544396817684174,-0.010321466252207756,-0.1341935396194458,0.27291765809059143,0.06245134770870209,0.219215527176857,0.3454764783382416,-0.07839171588420868,0.14154434204101562,0.07251538336277008,-0.09660383313894272,-0.00792259443551302,0.06998288631439209,0.10624833405017853,-0.18128268420696259,0.06172814965248108,0.09527373313903809,0.26636803150177,0.20527364313602448,-0.11143925040960312,0.06677908450365067,-0.08117712289094925,-0.26704710721969604,-0.17600739002227783,0.43684643507003784,-0.025379545986652374,-0.07942679524421692,-0.02363431081175804,0.2785378098487854,-0.20051179826259613,-0.14572815597057343,-0.23671413958072662,-0.3950832188129425,-0.16262011229991913,0.05184302479028702,-0.11595112830400467,-0.17701882123947144,0.29214775562286377,-0.09444741904735565,0.09113074094057083,-0.08616231381893158,0.180260568857193,-0.1456020027399063,0.2645989954471588,-0.03861415386199951,0.07490269839763641,-0.1474689543247223,-0.08309044688940048,-0.28029751777648926,0.011906402185559273,-0.012359815649688244,0.06656854599714279,0.015288074500858784,0.00018215332238469273,0.19126954674720764,0.05284277722239494,0.186323881149292,0.09230469167232513,0.3008400499820709,-0.11018625646829605,-0.19077996909618378,-0.2720727324485779,-0.35027697682380676,-0.06070549413561821,-0.3729162812232971,0.10342836380004883,-0.1583671122789383,-0.03360910341143608,-0.12330349534749985,0.05318803712725639,-0.31014183163642883,0.1740504652261734,-0.19373522698879242,0.4325856864452362,-0.32796770334243774,-0.3076187074184418,-0.23134756088256836,-0.11540688574314117,0.11859892308712006,0.02902567759156227,-0.06214214488863945,0.11474316567182541,0.18568727374076843,0.06177462637424469,0.41842156648635864,-0.06977777928113937,0.29271969199180603,0.025575654581189156,0.23500487208366394,-0.11368829756975174,-0.1399758756160736,0.24937447905540466,0.07017425447702408,-0.01015213318169117,-0.10622761398553848,0.15022075176239014,0.42731478810310364,0.0207354798913002,-0.08592478930950165,0.09257262200117111,-0.2671462297439575,-0.06245538219809532,0.44773536920547485,0.19403564929962158,-0.10551426559686661,-0.37299537658691406,-0.038356535136699677,0.37646564841270447,-0.08981014043092728,-0.045100823044776917,-0.10763159394264221,0.29241570830345154,-0.29229360818862915,0.12894579768180847,0.3580733835697174,-0.0003102991613559425,-0.0031311074271798134,0.017345761880278587,-0.09355970472097397,0.18798759579658508,-0.14918965101242065,-0.22817233204841614,0.17923244833946228,-0.22585716843605042,0.2787817120552063,-0.04020366817712784,-0.05227440223097801,-0.06035128980875015,0.06227362900972366,0.07043485343456268,0.016129182651638985,-0.1531229317188263,0.03341388702392578,0.12423429638147354,0.1348581314086914,-0.24802105128765106,-0.16040925681591034,0.037267860025167465,0.1940610557794571,-0.24635592103004456,0.17132887244224548,0.23493066430091858,-0.17835281789302826,-0.07641040533781052,-0.21039095520973206,0.17340309917926788,0.17383840680122375,0.11608055233955383,-0.29885438084602356,0.03759469836950302,-0.09718555957078934,0.09515107423067093,0.5646663904190063,0.10412145406007767,0.12523552775382996,0.035881221294403076,0.15479721128940582,0.2483786642551422,-0.13023000955581665,0.08108634501695633,-0.1437092125415802,-0.10910403728485107,-0.606844961643219,-0.11177967488765717,0.2564309537410736,-0.04927024617791176,-0.3468911945819855,-0.12370707839727402,0.03907451406121254,-0.012156234122812748,-0.4667644202709198,0.056302644312381744,0.13443730771541595,0.11290225386619568,0.22537852823734283,-0.19012291729450226,-0.21408094465732574,0.0889347717165947,0.12024016678333282,-0.33002719283103943,0.11659415811300278,-0.05701204761862755,-0.060066256672143936,0.11781681329011917,-0.09073900431394577,-0.19338297843933105,-0.47513547539711,0.11236677318811417,0.3661506772041321,0.33396226167678833,0.11176517605781555,0.20904403924942017,0.03449195623397827,-0.16985541582107544,-0.09235221147537231,0.0643865317106247,-0.18355605006217957,-0.2894659638404846,-0.36721107363700867,-0.14571909606456757,0.026575038209557533,-0.5356795787811279,0.2058815360069275,0.10134211927652359,0.0023211687803268433,-0.059377577155828476,0.12751343846321106,-0.24204379320144653,0.05039633437991142,0.29875263571739197,0.19073469936847687,0.14591915905475616,0.2373647689819336,-0.09777086973190308,-0.02256307378411293,-0.2727729082107544,-0.21791747212409973,0.06271529942750931,0.15297631919384003,0.19894948601722717,-0.08180312067270279,-0.03187064081430435,-0.024825695902109146,0.2661174535751343,-0.19704586267471313,0.09020116925239563,0.022915368899703026,0.4319593012332916,-0.22508186101913452,0.2161489725112915,-0.04344574362039566,0.0008755202288739383,-0.003285699989646673,-0.48617178201675415,0.10083078593015671,-0.4015158712863922,0.08465749770402908,-0.2906721234321594,-0.22502659261226654,-0.34955790638923645,-0.27615422010421753,0.33618971705436707,-0.0961400493979454,-0.2958245575428009,0.0013854886638000607,0.09240373969078064,-0.06368359923362732,-0.3129584491252899,0.14082667231559753,-0.006397917866706848,-0.34360256791114807,0.02696835622191429,0.3255986273288727,-0.08223893493413925,-0.15870089828968048,0.11414256691932678,-0.14133302867412567,0.11188019067049026,-0.10779844969511032,-0.3030072748661041,-0.04525051638484001,0.0497751384973526,-0.00034217516076751053,0.1828281432390213,0.24170461297035217,-0.03261208534240723,0.09107957035303116,0.06956741958856583,0.058686304837465286,0.34578126668930054,-0.23044992983341217,0.30256107449531555,-0.14287836849689484,0.0700378566980362,0.0016114204190671444,-0.08572808653116226,0.537920355796814,0.040462084114551544,-0.1024341955780983,-0.16722433269023895,0.39983847737312317,0.0427788607776165,-0.08714574575424194,-0.5085013508796692,0.01337640080600977,0.25065183639526367,0.12481176853179932,0.20960281789302826,-0.0011200690641999245,-0.029241200536489487,0.044867098331451416,-0.2187468707561493,-0.1367904096841812,0.19149386882781982,0.13783417642116547,-0.23556366562843323,-0.18034285306930542,-0.04383791238069534,-0.2900324761867523,-0.15543133020401,0.06434149295091629,-1.08799147605896,0.001727594994008541,0.2737542390823364,-0.4549136459827423,0.25321123003959656,0.19799739122390747,0.32001692056655884,0.4507770240306854,0.30098557472229004,-0.15838363766670227,-0.17351414263248444,0.2856515347957611,-0.18418966233730316,0.2945444583892822,0.04060228914022446,0.0664476677775383,0.37818998098373413,0.12460041046142578,-0.009633009321987629,0.13151580095291138,0.11439790576696396,0.13458427786827087,-0.19631704688072205,0.1790943592786789,0.00894987490028143,-0.19137687981128693,-0.236411914229393,-0.05503297224640846,0.06687773764133453,-0.07871711254119873,0.06676869094371796,-0.15287046134471893,-0.17776279151439667,0.07527785748243332,0.03874221444129944,-0.25285521149635315,0.35715043544769287,0.09781832993030548,-0.04930909723043442,0.30357033014297485,-0.11249494552612305,-0.5008894801139832,-0.007748556323349476,-0.18041467666625977,0.0735628679394722,-0.0660872682929039,-0.0134011534973979,0.07712869346141815,0.20430225133895874,0.43281763792037964,0.3105107843875885,-0.10892228782176971,0.422325074672699,-0.10787621140480042,0.044807687401771545,-0.03953850641846657,0.2734557092189789,-0.2965884506702423,-0.05677545443177223,0.0762760192155838,0.008042126893997192,0.07545948028564453,-0.06789425015449524,0.011329873465001583,-0.06398262828588486,0.2787059545516968,-0.14949646592140198,0.09145236760377884,-0.08707261085510254,-0.1786302924156189,-0.16516420245170593,0.13534022867679596,-0.11341802775859833,0.08604687452316284,-0.1471433788537979,-0.4299643933773041,0.09686154127120972,0.387324720621109,-0.23176436126232147,0.09503186494112015,0.03299998864531517,0.02976614236831665,-0.07658012211322784,0.05342957749962807,0.11353018879890442,-0.023098668083548546,0.1323535293340683,0.09423565119504929,-0.37085187435150146,0.20965637266635895,-0.07627858221530914,-0.0006697623175568879,0.14598552882671356,0.016941240057349205,-0.037481971085071564,-0.046764057129621506,0.15606875717639923,0.2568637430667877,0.08896125853061676,-0.3902004063129425,0.20786727964878082,0.2870265245437622,0.22815556824207306,0.13845126330852509,0.07916431128978729,0.11953996866941452,-0.4540683925151825,1.1089074611663818,0.027016928419470787,-0.08564319461584091,-0.047779329121112823,0.19675706326961517,-0.28943413496017456,-0.3984130620956421,-0.13013067841529846,0.06316190958023071,0.22543023526668549,0.24581366777420044,-0.005229029804468155,0.37199151515960693,-0.1906442791223526,-0.0002435090282233432,0.2060593068599701,0.005253851413726807,0.12461381405591965,-0.08532112836837769,0.04633951187133789,-0.24678471684455872,0.10617098957300186,0.028028219938278198,-0.18589909374713898,0.1699017882347107,0.14061380922794342,-0.0035186298191547394,-0.38648882508277893,-0.14774402976036072,-0.033627700060606,0.41861483454704285,-0.1885455846786499,-0.12752175331115723,0.21056967973709106,-0.31366968154907227,-0.5110382437705994,-0.17246560752391815,0.05273117870092392,0.21610331535339355,0.1522606760263443,-0.2415948063135147,-0.004007226787507534,0.18289758265018463,0.08579053729772568,-0.36179131269454956,0.05776330828666687,1.17851984500885,-0.3159051835536957,-0.26763439178466797,-0.0197666734457016,0.06816092133522034,0.14734698832035065,0.02763606794178486,-0.14035619795322418,-0.3834677040576935,-0.2996254563331604,0.2547146677970886,0.2067408263683319,0.18307535350322723,0.33389517664909363,-0.19015811383724213,0.08926980942487717,-0.051277656108140945,0.05436723679304123,0.3369626998901367,0.35327088832855225,-0.08238036185503006,0.2826184928417206,-0.09616964310407639,0.011329205706715584,-0.4542725086212158,0.105363629758358,0.2519751489162445,0.5120543241500854,-0.1824560910463333,-0.21145141124725342,0.28019917011260986,0.12172653526067734,0.28567105531692505,0.03822615370154381,0.06833115965127945,0.17059630155563354,0.1171170175075531,-0.15929320454597473,-0.009064228273928165,-0.05575955659151077,0.1181156262755394,-0.05956457927823067,-0.07942301779985428,0.09563291817903519,-0.06344775855541229,-0.017758792266249657,-0.049200087785720825,-0.3839069902896881,-0.05253545567393303,-0.001387684140354395,-0.022337188944220543,0.5062965750694275,0.31336280703544617,-0.03704297915101051,0.10098009556531906,-0.1069374531507492,0.06638751924037933,0.15968374907970428,-0.06839966773986816,-0.11221758276224136,0.28456437587738037,-0.36790862679481506,0.30947571992874146,0.024435149505734444,-0.239188551902771,-0.46139654517173767,-0.052885811775922775,-0.45958662033081055,-0.02953433245420456,0.16289174556732178,0.38110771775245667,0.1695350706577301,-0.22504308819770813,-0.17039735615253448,-0.030455751344561577,-0.04652002081274986,-0.24998901784420013,-0.03751418739557266,0.016865171492099762,-0.05775626748800278,0.22119471430778503,0.1652277261018753,0.1905442178249359,-0.06667078286409378,-0.1943710893392563,0.19790929555892944,-0.11268068104982376,-0.12114357948303223,0.1632811278104782,-0.007127185817807913,0.015588589012622833,0.43822968006134033,-0.026088133454322815,-0.346777081489563,0.043324053287506104,0.30244606733322144,-0.07896173745393753,0.12344078719615936,0.2317388653755188,-0.14329732954502106,-0.0793650820851326,0.04088437557220459,0.05284033715724945,-0.06687352806329727,-0.17102906107902527,-0.12133613228797913,0.21779806911945343,0.12099757045507431,0.5131475925445557,0.16602838039398193,0.02714865282177925,-0.053126271814107895,0.12201324850320816,0.2477368414402008,-0.18604107201099396,-0.07890964299440384,-0.2221950888633728,-0.15015792846679688,0.3811476528644562,-0.20247647166252136,0.3300771117210388,-0.14317353069782257,-0.17413748800754547,-0.2803674042224884,-0.02519182115793228,0.01777244359254837,-0.11698310822248459,-0.3890253007411957,-0.4951639473438263,-0.008834870532155037,-0.22814171016216278,-0.10429742187261581,0.12488961219787598,-0.22289015352725983,-0.23532353341579437,0.01630552113056183,0.31179922819137573,0.23961780965328217,0.08962539583444595,-0.14198699593544006,-0.3698069453239441,0.0933847650885582,0.5647640228271484,0.09995454549789429,0.1836017370223999,-0.08755578100681305,0.20967251062393188,0.27206701040267944,-0.17499737441539764,-0.21636039018630981,0.21380093693733215,-0.02511589601635933,0.06935474276542664,-0.07497325539588928,-0.07759915292263031,-0.12687638401985168,-0.06590867042541504,-0.15526723861694336,-0.07105695456266403,0.11239412426948547,-0.2973676025867462,-0.016429228708148003,-0.26648634672164917,0.08351621776819229,-0.3954729437828064,-0.20319272577762604,-0.20013736188411713,-0.12084927409887314,-0.2148195505142212,0.368639200925827,0.07392408698797226,-0.35707080364227295,0.25053009390830994,0.19947710633277893,-0.01037515141069889,0.025216080248355865,-0.09055455774068832,-0.0818774625658989,-0.018945354968309402,0.036286089569330215,0.11616529524326324,0.22264310717582703,0.6472864151000977,0.009768280200660229,0.25516387820243835,-0.19151213765144348,-0.1575394719839096,-0.200303316116333,-0.0708690956234932,-0.010973263531923294,-0.11986075341701508,0.15386977791786194,0.028258521109819412,0.12071877717971802,0.4349658191204071,-0.130527526140213,-0.012644528411328793,-0.08980347216129303,-0.18027742207050323,-0.17988573014736176,0.15083351731300354,-0.266562819480896,0.07060600817203522,0.12452992796897888,0.07562649995088577,-0.0638326108455658,0.5661322474479675,-0.09000320732593536,-0.35879385471343994,0.06600465625524521,-0.13203871250152588,-0.21251708269119263,-0.1503315567970276,-0.08859260380268097,0.4119117259979248,-0.004099697340279818,0.2890612781047821,-0.11331973224878311,0.2963140308856964,0.028195368126034737,-0.19318360090255737,-0.24397796392440796,-0.10030791163444519,-0.17668282985687256,0.04540747404098511,-0.018287841230630875,0.42781996726989746,0.1533566564321518,-0.22604921460151672,-0.012517742812633514,0.09652765840291977,-0.06603281199932098,0.022014930844306946,-0.27636176347732544,0.1983243077993393,0.4401729106903076,0.2649615705013275,0.30573779344558716,-0.12326668947935104,0.24395133554935455,0.1699690818786621,-0.27770185470581055,-0.3510746657848358,0.14211530983448029,0.0784478485584259,0.23356637358665466,0.019835399463772774,-0.1917339563369751,0.13778722286224365,0.39757609367370605,-0.2452075332403183,-0.07332341372966766,-0.27882540225982666,0.0524141788482666,-0.115765780210495,0.345905065536499,-0.06331440061330795,0.17619530856609344,0.3204551041126251,0.04789816215634346,-0.09708239883184433,0.209164559841156,-0.20457302033901215,-0.044918354600667953,-0.40095579624176025,0.06721163541078568,0.1064116507768631,0.2764207720756531,0.08554205298423767,-0.12269812822341919,0.2837996780872345,0.01073930412530899,-0.08004429191350937,-0.0417538620531559,0.1307956874370575,-0.1948920339345932,-0.12574847042560577,0.01676451414823532,-0.2766907215118408,0.059165239334106445,-0.06613267213106155,0.12001409381628036,-0.0973089188337326,-0.009255725890398026,-0.12116051465272903,0.008887848816812038,-0.2177428901195526,0.21468229591846466,0.08229513466358185,-0.027309421449899673,-0.15653978288173676,-0.04585132375359535,-0.21043987572193146,-0.009744745679199696,-0.22224344313144684,-0.5002890825271606,0.34296321868896484,-0.4299546480178833,-0.11729437857866287,-0.10244311392307281,-0.1574403941631317,0.07674280554056168,0.12659941613674164,0.241834819316864,0.20736545324325562,-0.12947200238704681,0.02895880863070488,0.21023671329021454,0.055164773017168045,-0.1159454733133316,-0.28102806210517883,0.09769994020462036,0.011631264351308346,-0.2034178376197815,0.07014191150665283,0.013409125618636608,0.016873393207788467,-0.20585444569587708,0.03016360104084015,0.2350182831287384,0.11354077607393265,0.058558013290166855,0.03570391610264778,-0.0511581227183342,0.030931487679481506,0.19668202102184296,-0.1394643634557724,0.09954095631837845,0.1539231836795807,0.12076658010482788,0.6103070974349976,0.020141391083598137,0.0023699025623500347,0.12847909331321716,0.04261132329702377,0.0761743113398552,-0.3372277617454529,-0.25894054770469666,0.3335963785648346,0.06600292026996613,0.026438521221280098,-0.2641914188861847,0.45251789689064026,-0.07686277478933334,0.14343631267547607,0.10886923223733902,0.2039795219898224,-0.0033519777934998274,0.12361250072717667,-0.05218423157930374,0.3147370517253876,-0.08443589508533478,0.16654106974601746,-0.017743781208992004,0.08428572118282318,0.04852956533432007,0.48518794775009155,-0.0005689910030923784,0.004936605226248503,0.1414792239665985,-0.209501713514328,0.19859443604946136,0.33697372674942017,0.08845603466033936,0.07113643735647202,0.38056680560112,0.3852492570877075,-0.07312070578336716,0.27293217182159424,0.07387249916791916,-0.31836965680122375,-0.02706562541425228,0.1697043478488922,-0.05189046636223793,0.4810436964035034,-0.31010279059410095,0.22214652597904205,-0.0382518470287323,0.21292871236801147,-0.15275821089744568,0.03626688942313194,0.044963255524635315,-0.2310764640569687,-0.13245712220668793,-0.41471603512763977,-0.10846499353647232,0.18120086193084717,-0.24613350629806519,0.07447385787963867,-0.2608414888381958,-0.03383983299136162,-0.6439343094825745,-0.29848793148994446,0.24971531331539154,0.16711179912090302,-0.2982325255870819,0.30052682757377625,-0.22481098771095276,-0.29851916432380676,0.04901617765426636,0.04768538102507591,-0.12357119470834732,0.017716435715556145,-0.3705101013183594,0.0894993245601654,-0.030252063646912575,0.10914702713489532,-0.12220582365989685,-0.1915910840034485,0.24701394140720367,0.17901746928691864,0.039314184337854385,0.0619170144200325,-0.5437977910041809,0.02003214694559574,-0.1102641224861145,0.03979150950908661,0.13867215812206268,0.42430540919303894,0.33224961161613464,0.0046774847432971,0.003321665106341243,-0.0691518560051918,-0.25567683577537537,-4.690157890319824,0.21167315542697906,0.2956486642360687,-0.33279910683631897,0.03936716169118881,0.11681712418794632,-0.07817491888999939,0.0688278079032898,0.08867811411619186,-0.06849293410778046,-0.1582285314798355,0.7019450068473816,0.24329225718975067,0.03542584553360939,-0.08101631700992584,0.2743481993675232,0.20861521363258362,-0.07729127258062363,-0.13876071572303772,0.10051165521144867,0.1629800647497177,-0.1217852532863617,0.12650588154792786,0.5672858357429504,0.33641377091407776,-0.047787025570869446,0.016284961253404617,0.10867564380168915,0.011235343292355537,0.2947993576526642,-0.010800727643072605,-0.026285899803042412,0.24087688326835632,-0.02416657842695713,0.0962422788143158,0.5809539556503296,0.16243727505207062,-0.057360682636499405,-0.1003325879573822,-0.037482574582099915,0.5915543437004089,-0.004690519534051418,-0.13356907665729523,-0.09047602117061615,-0.6157918572425842,-0.17922639846801758,0.14526914060115814,-0.18675106763839722,-0.25935831665992737,0.18199095129966736,-0.03249378502368927,-0.2352587729692459,0.09769866615533829,-0.10552757233381271,0.14380428194999695,0.11905549466609955,0.0572228766977787,-0.1600315272808075,0.36715400218963623,-0.016285520046949387,0.07493869960308075,-0.036523837596178055,-0.09629745036363602,-0.1660127490758896,-0.05135151371359825,0.24400509893894196,-0.03020327538251877,-0.005630691535770893,0.05147135257720947,0.11893749237060547,0.8573600053787231,0.29987668991088867,0.15727993845939636,0.47199898958206177,0.17803625762462616,-0.11457230895757675,0.2810424864292145,0.3679072856903076,0.07676485180854797,0.13235916197299957,0.12435044348239899,0.020430786535143852,-0.28294891119003296,-0.006752382032573223,0.28953540325164795,-0.5552210211753845,0.17981742322444916,-0.07270140200853348,0.061384160071611404,-0.37048399448394775,-0.14036421477794647,0.23136408627033234,0.06375724077224731,0.013712690211832523,0.10269270092248917,-0.20302410423755646,-0.24837183952331543,-0.4773576855659485,0.17947807908058167,0.2155301868915558,0.21616564691066742,-0.18749235570430756,0.5435677170753479,-0.16865234076976776,-0.47728273272514343,-0.011876475997269154,-0.2145487368106842,-0.05349423363804817,0.22047705948352814,0.2895175814628601,-0.03991476073861122,-0.06395398080348969,-0.24740171432495117,0.225383922457695,0.25671055912971497,-0.09668485820293427,-0.1350593864917755,-0.1429627537727356,0.09045714139938354,-0.12429888546466827
